digraph Tree {
node [shape=box, style="filled, rounded", color="black", fontname=helvetica] ;
edge [fontname=helvetica] ;
0 [label="popularity <= 50.5\ngini = 0.5\nsamples = 32598\nvalue = [16336, 16262]\nclass = 0", fillcolor="#fffefe"] ;
1 [label="gini = 0.0\nsamples = 10025\nvalue = [0, 10025]\nclass = 1", fillcolor="#399de5"] ;
0 -> 1 [labeldistance=2.5, labelangle=45, headlabel="True"] ;
2 [label="popularity <= 66.5\ngini = 0.4\nsamples = 22573\nvalue = [16336, 6237]\nclass = 0", fillcolor="#efb185"] ;
0 -> 2 [labeldistance=2.5, labelangle=-45, headlabel="False"] ;
3 [label="instrumentalness <= 0.159\ngini = 0.348\nsamples = 18247\nvalue = [14155, 4092]\nclass = 0", fillcolor="#eda572"] ;
2 -> 3 ;
4 [label="valence <= 0.509\ngini = 0.374\nsamples = 15917\nvalue = [11960, 3957]\nclass = 0", fillcolor="#eeab7b"] ;
3 -> 4 ;
5 [label="popularity <= 60.5\ngini = 0.32\nsamples = 8163\nvalue = [6533, 1630]\nclass = 0", fillcolor="#eba06a"] ;
4 -> 5 ;
6 [label="speechiness <= 0.033\ngini = 0.283\nsamples = 6023\nvalue = [4994, 1029]\nclass = 0", fillcolor="#ea9b62"] ;
5 -> 6 ;
7 [label="loudness <= -11.705\ngini = 0.394\nsamples = 1403\nvalue = [1024, 379]\nclass = 0", fillcolor="#efb082"] ;
6 -> 7 ;
8 [label="acousticness <= 0.711\ngini = 0.495\nsamples = 160\nvalue = [88, 72]\nclass = 0", fillcolor="#fae8db"] ;
7 -> 8 ;
9 [label="instrumentalness <= 0.001\ngini = 0.45\nsamples = 82\nvalue = [28, 54]\nclass = 1", fillcolor="#a0d0f2"] ;
8 -> 9 ;
10 [label="energy <= 0.279\ngini = 0.362\nsamples = 59\nvalue = [14, 45]\nclass = 1", fillcolor="#77bbed"] ;
9 -> 10 ;
11 [label="gini = 0.486\nsamples = 24\nvalue = [10, 14]\nclass = 1", fillcolor="#c6e3f8"] ;
10 -> 11 ;
12 [label="gini = 0.202\nsamples = 35\nvalue = [4, 31]\nclass = 1", fillcolor="#53aae8"] ;
10 -> 12 ;
13 [label="valence <= 0.263\ngini = 0.476\nsamples = 23\nvalue = [14, 9]\nclass = 0", fillcolor="#f6d2b8"] ;
9 -> 13 ;
14 [label="gini = 0.298\nsamples = 11\nvalue = [9, 2]\nclass = 0", fillcolor="#eb9d65"] ;
13 -> 14 ;
15 [label="gini = 0.486\nsamples = 12\nvalue = [5, 7]\nclass = 1", fillcolor="#c6e3f8"] ;
13 -> 15 ;
16 [label="popularity <= 56.5\ngini = 0.355\nsamples = 78\nvalue = [60, 18]\nclass = 0", fillcolor="#eda774"] ;
8 -> 16 ;
17 [label="speechiness <= 0.031\ngini = 0.238\nsamples = 58\nvalue = [50, 8]\nclass = 0", fillcolor="#e99559"] ;
16 -> 17 ;
18 [label="gini = 0.375\nsamples = 28\nvalue = [21, 7]\nclass = 0", fillcolor="#eeab7b"] ;
17 -> 18 ;
19 [label="gini = 0.064\nsamples = 30\nvalue = [29, 1]\nclass = 0", fillcolor="#e68540"] ;
17 -> 19 ;
20 [label="acousticness <= 0.794\ngini = 0.5\nsamples = 20\nvalue = [10, 10]\nclass = 0", fillcolor="#ffffff"] ;
16 -> 20 ;
21 [label="gini = 0.42\nsamples = 10\nvalue = [7, 3]\nclass = 0", fillcolor="#f0b78e"] ;
20 -> 21 ;
22 [label="gini = 0.42\nsamples = 10\nvalue = [3, 7]\nclass = 1", fillcolor="#8ec7f0"] ;
20 -> 22 ;
23 [label="Taylor Swift <= 0.5\ngini = 0.372\nsamples = 1243\nvalue = [936, 307]\nclass = 0", fillcolor="#eeaa7a"] ;
7 -> 23 ;
24 [label="acousticness <= 0.513\ngini = 0.363\nsamples = 1223\nvalue = [932, 291]\nclass = 0", fillcolor="#eda877"] ;
23 -> 24 ;
25 [label="loudness <= -9.452\ngini = 0.407\nsamples = 830\nvalue = [594, 236]\nclass = 0", fillcolor="#efb388"] ;
24 -> 25 ;
26 [label="gini = 0.499\nsamples = 84\nvalue = [44, 40]\nclass = 0", fillcolor="#fdf4ed"] ;
25 -> 26 ;
27 [label="gini = 0.387\nsamples = 746\nvalue = [550, 196]\nclass = 0", fillcolor="#eeae80"] ;
25 -> 27 ;
28 [label="speechiness <= 0.025\ngini = 0.241\nsamples = 393\nvalue = [338, 55]\nclass = 0", fillcolor="#e99659"] ;
24 -> 28 ;
29 [label="gini = 0.484\nsamples = 17\nvalue = [7, 10]\nclass = 1", fillcolor="#c4e2f7"] ;
28 -> 29 ;
30 [label="gini = 0.211\nsamples = 376\nvalue = [331, 45]\nclass = 0", fillcolor="#e99254"] ;
28 -> 30 ;
31 [label="loudness <= -6.495\ngini = 0.32\nsamples = 20\nvalue = [4, 16]\nclass = 1", fillcolor="#6ab6ec"] ;
23 -> 31 ;
32 [label="gini = 0.48\nsamples = 10\nvalue = [4, 6]\nclass = 1", fillcolor="#bddef6"] ;
31 -> 32 ;
33 [label="gini = 0.0\nsamples = 10\nvalue = [0, 10]\nclass = 1", fillcolor="#399de5"] ;
31 -> 33 ;
34 [label="duration_ms <= 197575.5\ngini = 0.242\nsamples = 4620\nvalue = [3970, 650]\nclass = 0", fillcolor="#e99659"] ;
6 -> 34 ;
35 [label="danceability <= 0.442\ngini = 0.13\nsamples = 1298\nvalue = [1207, 91]\nclass = 0", fillcolor="#e78a48"] ;
34 -> 35 ;
36 [label="duration_ms <= 189500.0\ngini = 0.257\nsamples = 205\nvalue = [174, 31]\nclass = 0", fillcolor="#ea975c"] ;
35 -> 36 ;
37 [label="duration_ms <= 177460.0\ngini = 0.185\nsamples = 165\nvalue = [148, 17]\nclass = 0", fillcolor="#e88f50"] ;
36 -> 37 ;
38 [label="gini = 0.109\nsamples = 104\nvalue = [98, 6]\nclass = 0", fillcolor="#e78945"] ;
37 -> 38 ;
39 [label="gini = 0.296\nsamples = 61\nvalue = [50, 11]\nclass = 0", fillcolor="#eb9d65"] ;
37 -> 39 ;
40 [label="popularity <= 57.5\ngini = 0.455\nsamples = 40\nvalue = [26, 14]\nclass = 0", fillcolor="#f3c5a4"] ;
36 -> 40 ;
41 [label="gini = 0.328\nsamples = 29\nvalue = [23, 6]\nclass = 0", fillcolor="#eca26d"] ;
40 -> 41 ;
42 [label="gini = 0.397\nsamples = 11\nvalue = [3, 8]\nclass = 1", fillcolor="#83c2ef"] ;
40 -> 42 ;
43 [label="Future <= 0.5\ngini = 0.104\nsamples = 1093\nvalue = [1033, 60]\nclass = 0", fillcolor="#e78845"] ;
35 -> 43 ;
44 [label="energy <= 0.967\ngini = 0.097\nsamples = 1080\nvalue = [1025, 55]\nclass = 0", fillcolor="#e68844"] ;
43 -> 44 ;
45 [label="gini = 0.092\nsamples = 1060\nvalue = [1009, 51]\nclass = 0", fillcolor="#e68743"] ;
44 -> 45 ;
46 [label="gini = 0.32\nsamples = 20\nvalue = [16, 4]\nclass = 0", fillcolor="#eca06a"] ;
44 -> 46 ;
47 [label="gini = 0.473\nsamples = 13\nvalue = [8, 5]\nclass = 0", fillcolor="#f5d0b5"] ;
43 -> 47 ;
48 [label="popularity <= 53.5\ngini = 0.28\nsamples = 3322\nvalue = [2763, 559]\nclass = 0", fillcolor="#ea9a61"] ;
34 -> 48 ;
49 [label="acousticness <= 0.007\ngini = 0.214\nsamples = 1201\nvalue = [1055, 146]\nclass = 0", fillcolor="#e99254"] ;
48 -> 49 ;
50 [label="danceability <= 0.779\ngini = 0.103\nsamples = 258\nvalue = [244, 14]\nclass = 0", fillcolor="#e68844"] ;
49 -> 50 ;
51 [label="gini = 0.085\nsamples = 247\nvalue = [236, 11]\nclass = 0", fillcolor="#e68742"] ;
50 -> 51 ;
52 [label="gini = 0.397\nsamples = 11\nvalue = [8, 3]\nclass = 0", fillcolor="#efb083"] ;
50 -> 52 ;
53 [label="loudness <= -6.087\ngini = 0.241\nsamples = 943\nvalue = [811, 132]\nclass = 0", fillcolor="#e99659"] ;
49 -> 53 ;
54 [label="gini = 0.202\nsamples = 605\nvalue = [536, 69]\nclass = 0", fillcolor="#e89152"] ;
53 -> 54 ;
55 [label="gini = 0.303\nsamples = 338\nvalue = [275, 63]\nclass = 0", fillcolor="#eb9e66"] ;
53 -> 55 ;
56 [label="acousticness <= 0.553\ngini = 0.314\nsamples = 2121\nvalue = [1708, 413]\nclass = 0", fillcolor="#eb9f69"] ;
48 -> 56 ;
57 [label="loudness <= -13.091\ngini = 0.34\nsamples = 1745\nvalue = [1366, 379]\nclass = 0", fillcolor="#eca470"] ;
56 -> 57 ;
58 [label="gini = 0.492\nsamples = 32\nvalue = [14, 18]\nclass = 1", fillcolor="#d3e9f9"] ;
57 -> 58 ;
59 [label="gini = 0.333\nsamples = 1713\nvalue = [1352, 361]\nclass = 0", fillcolor="#eca36e"] ;
57 -> 59 ;
60 [label="speechiness <= 0.034\ngini = 0.164\nsamples = 376\nvalue = [342, 34]\nclass = 0", fillcolor="#e88e4d"] ;
56 -> 60 ;
61 [label="gini = 0.298\nsamples = 44\nvalue = [36, 8]\nclass = 0", fillcolor="#eb9d65"] ;
60 -> 61 ;
62 [label="gini = 0.144\nsamples = 332\nvalue = [306, 26]\nclass = 0", fillcolor="#e78c4a"] ;
60 -> 62 ;
63 [label="duration_ms <= 227764.0\ngini = 0.404\nsamples = 2140\nvalue = [1539, 601]\nclass = 0", fillcolor="#efb286"] ;
5 -> 63 ;
64 [label="danceability <= 0.393\ngini = 0.347\nsamples = 1188\nvalue = [923, 265]\nclass = 0", fillcolor="#eca572"] ;
63 -> 64 ;
65 [label="acousticness <= 0.004\ngini = 0.47\nsamples = 98\nvalue = [61, 37]\nclass = 0", fillcolor="#f5cdb1"] ;
64 -> 65 ;
66 [label="gini = 0.133\nsamples = 14\nvalue = [13, 1]\nclass = 0", fillcolor="#e78b48"] ;
65 -> 66 ;
67 [label="duration_ms <= 154053.0\ngini = 0.49\nsamples = 84\nvalue = [48, 36]\nclass = 0", fillcolor="#f8e0ce"] ;
65 -> 67 ;
68 [label="gini = 0.18\nsamples = 10\nvalue = [9, 1]\nclass = 0", fillcolor="#e88f4f"] ;
67 -> 68 ;
69 [label="duration_ms <= 186333.5\ngini = 0.499\nsamples = 74\nvalue = [39, 35]\nclass = 0", fillcolor="#fcf2eb"] ;
67 -> 69 ;
70 [label="gini = 0.245\nsamples = 14\nvalue = [2, 12]\nclass = 1", fillcolor="#5aade9"] ;
69 -> 70 ;
71 [label="gini = 0.473\nsamples = 60\nvalue = [37, 23]\nclass = 0", fillcolor="#f5cfb4"] ;
69 -> 71 ;
72 [label="danceability <= 0.755\ngini = 0.331\nsamples = 1090\nvalue = [862, 228]\nclass = 0", fillcolor="#eca26d"] ;
64 -> 72 ;
73 [label="valence <= 0.502\ngini = 0.299\nsamples = 843\nvalue = [689, 154]\nclass = 0", fillcolor="#eb9d65"] ;
72 -> 73 ;
74 [label="energy <= 0.569\ngini = 0.291\nsamples = 830\nvalue = [683, 147]\nclass = 0", fillcolor="#eb9c64"] ;
73 -> 74 ;
75 [label="gini = 0.221\nsamples = 332\nvalue = [290, 42]\nclass = 0", fillcolor="#e99356"] ;
74 -> 75 ;
76 [label="gini = 0.333\nsamples = 498\nvalue = [393, 105]\nclass = 0", fillcolor="#eca36e"] ;
74 -> 76 ;
77 [label="gini = 0.497\nsamples = 13\nvalue = [6, 7]\nclass = 1", fillcolor="#e3f1fb"] ;
73 -> 77 ;
78 [label="duration_ms <= 177447.5\ngini = 0.42\nsamples = 247\nvalue = [173, 74]\nclass = 0", fillcolor="#f0b78e"] ;
72 -> 78 ;
79 [label="energy <= 0.496\ngini = 0.295\nsamples = 111\nvalue = [91, 20]\nclass = 0", fillcolor="#eb9d65"] ;
78 -> 79 ;
80 [label="gini = 0.444\nsamples = 33\nvalue = [22, 11]\nclass = 0", fillcolor="#f2c09c"] ;
79 -> 80 ;
81 [label="gini = 0.204\nsamples = 78\nvalue = [69, 9]\nclass = 0", fillcolor="#e89153"] ;
79 -> 81 ;
82 [label="popularity <= 64.5\ngini = 0.479\nsamples = 136\nvalue = [82, 54]\nclass = 0", fillcolor="#f6d4bb"] ;
78 -> 82 ;
83 [label="gini = 0.438\nsamples = 102\nvalue = [69, 33]\nclass = 0", fillcolor="#f1bd98"] ;
82 -> 83 ;
84 [label="gini = 0.472\nsamples = 34\nvalue = [13, 21]\nclass = 1", fillcolor="#b4daf5"] ;
82 -> 84 ;
85 [label="acousticness <= 0.314\ngini = 0.457\nsamples = 952\nvalue = [616, 336]\nclass = 0", fillcolor="#f3c6a5"] ;
63 -> 85 ;
86 [label="loudness <= -9.438\ngini = 0.48\nsamples = 638\nvalue = [383, 255]\nclass = 0", fillcolor="#f6d5bd"] ;
85 -> 86 ;
87 [label="valence <= 0.209\ngini = 0.458\nsamples = 62\nvalue = [22, 40]\nclass = 1", fillcolor="#a6d3f3"] ;
86 -> 87 ;
88 [label="liveness <= 0.115\ngini = 0.434\nsamples = 22\nvalue = [15, 7]\nclass = 0", fillcolor="#f1bc95"] ;
87 -> 88 ;
89 [label="gini = 0.5\nsamples = 10\nvalue = [5, 5]\nclass = 0", fillcolor="#ffffff"] ;
88 -> 89 ;
90 [label="gini = 0.278\nsamples = 12\nvalue = [10, 2]\nclass = 0", fillcolor="#ea9a61"] ;
88 -> 90 ;
91 [label="tempo <= 94.516\ngini = 0.289\nsamples = 40\nvalue = [7, 33]\nclass = 1", fillcolor="#63b2eb"] ;
87 -> 91 ;
92 [label="gini = 0.5\nsamples = 10\nvalue = [5, 5]\nclass = 0", fillcolor="#ffffff"] ;
91 -> 92 ;
93 [label="gini = 0.124\nsamples = 30\nvalue = [2, 28]\nclass = 1", fillcolor="#47a4e7"] ;
91 -> 93 ;
94 [label="instrumentalness <= 0.008\ngini = 0.468\nsamples = 576\nvalue = [361, 215]\nclass = 0", fillcolor="#f4ccaf"] ;
86 -> 94 ;
95 [label="energy <= 0.951\ngini = 0.476\nsamples = 541\nvalue = [330, 211]\nclass = 0", fillcolor="#f6d2b8"] ;
94 -> 95 ;
96 [label="gini = 0.481\nsamples = 519\nvalue = [310, 209]\nclass = 0", fillcolor="#f7d6be"] ;
95 -> 96 ;
97 [label="gini = 0.165\nsamples = 22\nvalue = [20, 2]\nclass = 0", fillcolor="#e88e4d"] ;
95 -> 97 ;
98 [label="duration_ms <= 256406.5\ngini = 0.202\nsamples = 35\nvalue = [31, 4]\nclass = 0", fillcolor="#e89153"] ;
94 -> 98 ;
99 [label="gini = 0.426\nsamples = 13\nvalue = [9, 4]\nclass = 0", fillcolor="#f1b991"] ;
98 -> 99 ;
100 [label="gini = 0.0\nsamples = 22\nvalue = [22, 0]\nclass = 0", fillcolor="#e58139"] ;
98 -> 100 ;
101 [label="liveness <= 0.088\ngini = 0.383\nsamples = 314\nvalue = [233, 81]\nclass = 0", fillcolor="#eead7e"] ;
85 -> 101 ;
102 [label="loudness <= -7.678\ngini = 0.5\nsamples = 40\nvalue = [20, 20]\nclass = 0", fillcolor="#ffffff"] ;
101 -> 102 ;
103 [label="energy <= 0.406\ngini = 0.466\nsamples = 27\nvalue = [10, 17]\nclass = 1", fillcolor="#add7f4"] ;
102 -> 103 ;
104 [label="gini = 0.492\nsamples = 16\nvalue = [9, 7]\nclass = 0", fillcolor="#f9e3d3"] ;
103 -> 104 ;
105 [label="gini = 0.165\nsamples = 11\nvalue = [1, 10]\nclass = 1", fillcolor="#4da7e8"] ;
103 -> 105 ;
106 [label="gini = 0.355\nsamples = 13\nvalue = [10, 3]\nclass = 0", fillcolor="#eda774"] ;
102 -> 106 ;
107 [label="loudness <= -10.397\ngini = 0.346\nsamples = 274\nvalue = [213, 61]\nclass = 0", fillcolor="#eca572"] ;
101 -> 107 ;
108 [label="speechiness <= 0.031\ngini = 0.465\nsamples = 79\nvalue = [50, 29]\nclass = 0", fillcolor="#f4caac"] ;
107 -> 108 ;
109 [label="gini = 0.415\nsamples = 17\nvalue = [5, 12]\nclass = 1", fillcolor="#8bc6f0"] ;
108 -> 109 ;
110 [label="gini = 0.398\nsamples = 62\nvalue = [45, 17]\nclass = 0", fillcolor="#efb184"] ;
108 -> 110 ;
111 [label="duration_ms <= 278426.5\ngini = 0.274\nsamples = 195\nvalue = [163, 32]\nclass = 0", fillcolor="#ea9a60"] ;
107 -> 111 ;
112 [label="gini = 0.198\nsamples = 126\nvalue = [112, 14]\nclass = 0", fillcolor="#e89152"] ;
111 -> 112 ;
113 [label="gini = 0.386\nsamples = 69\nvalue = [51, 18]\nclass = 0", fillcolor="#eead7f"] ;
111 -> 113 ;
114 [label="loudness <= -9.41\ngini = 0.42\nsamples = 7754\nvalue = [5427, 2327]\nclass = 0", fillcolor="#f0b78e"] ;
4 -> 114 ;
115 [label="speechiness <= 0.083\ngini = 0.498\nsamples = 1147\nvalue = [535, 612]\nclass = 1", fillcolor="#e6f3fc"] ;
114 -> 115 ;
116 [label="acousticness <= 0.498\ngini = 0.468\nsamples = 811\nvalue = [303, 508]\nclass = 1", fillcolor="#afd7f5"] ;
115 -> 116 ;
117 [label="energy <= 0.553\ngini = 0.399\nsamples = 546\nvalue = [150, 396]\nclass = 1", fillcolor="#84c2ef"] ;
116 -> 117 ;
118 [label="loudness <= -11.471\ngini = 0.471\nsamples = 247\nvalue = [94, 153]\nclass = 1", fillcolor="#b3d9f5"] ;
117 -> 118 ;
119 [label="energy <= 0.375\ngini = 0.375\nsamples = 148\nvalue = [37, 111]\nclass = 1", fillcolor="#7bbeee"] ;
118 -> 119 ;
120 [label="gini = 0.498\nsamples = 36\nvalue = [17, 19]\nclass = 1", fillcolor="#eaf5fc"] ;
119 -> 120 ;
121 [label="gini = 0.293\nsamples = 112\nvalue = [20, 92]\nclass = 1", fillcolor="#64b2eb"] ;
119 -> 121 ;
122 [label="danceability <= 0.722\ngini = 0.489\nsamples = 99\nvalue = [57, 42]\nclass = 0", fillcolor="#f8decb"] ;
118 -> 122 ;
123 [label="gini = 0.496\nsamples = 59\nvalue = [27, 32]\nclass = 1", fillcolor="#e0f0fb"] ;
122 -> 123 ;
124 [label="gini = 0.375\nsamples = 40\nvalue = [30, 10]\nclass = 0", fillcolor="#eeab7b"] ;
122 -> 124 ;
125 [label="loudness <= -10.477\ngini = 0.304\nsamples = 299\nvalue = [56, 243]\nclass = 1", fillcolor="#67b4eb"] ;
117 -> 125 ;
126 [label="duration_ms <= 210012.0\ngini = 0.22\nsamples = 191\nvalue = [24, 167]\nclass = 1", fillcolor="#55abe9"] ;
125 -> 126 ;
127 [label="gini = 0.38\nsamples = 55\nvalue = [14, 41]\nclass = 1", fillcolor="#7dbeee"] ;
126 -> 127 ;
128 [label="gini = 0.136\nsamples = 136\nvalue = [10, 126]\nclass = 1", fillcolor="#49a5e7"] ;
126 -> 128 ;
129 [label="instrumentalness <= 0.0\ngini = 0.417\nsamples = 108\nvalue = [32, 76]\nclass = 1", fillcolor="#8cc6f0"] ;
125 -> 129 ;
130 [label="gini = 0.487\nsamples = 50\nvalue = [21, 29]\nclass = 1", fillcolor="#c8e4f8"] ;
129 -> 130 ;
131 [label="gini = 0.307\nsamples = 58\nvalue = [11, 47]\nclass = 1", fillcolor="#67b4eb"] ;
129 -> 131 ;
132 [label="duration_ms <= 131860.0\ngini = 0.488\nsamples = 265\nvalue = [153, 112]\nclass = 0", fillcolor="#f8ddca"] ;
116 -> 132 ;
133 [label="loudness <= -11.059\ngini = 0.074\nsamples = 26\nvalue = [25, 1]\nclass = 0", fillcolor="#e68641"] ;
132 -> 133 ;
134 [label="gini = 0.0\nsamples = 16\nvalue = [16, 0]\nclass = 0", fillcolor="#e58139"] ;
133 -> 134 ;
135 [label="gini = 0.18\nsamples = 10\nvalue = [9, 1]\nclass = 0", fillcolor="#e88f4f"] ;
133 -> 135 ;
136 [label="duration_ms <= 164884.5\ngini = 0.497\nsamples = 239\nvalue = [128, 111]\nclass = 0", fillcolor="#fceee5"] ;
132 -> 136 ;
137 [label="energy <= 0.396\ngini = 0.419\nsamples = 57\nvalue = [17, 40]\nclass = 1", fillcolor="#8dc7f0"] ;
136 -> 137 ;
138 [label="gini = 0.497\nsamples = 26\nvalue = [12, 14]\nclass = 1", fillcolor="#e3f1fb"] ;
137 -> 138 ;
139 [label="gini = 0.271\nsamples = 31\nvalue = [5, 26]\nclass = 1", fillcolor="#5fb0ea"] ;
137 -> 139 ;
140 [label="loudness <= -16.122\ngini = 0.476\nsamples = 182\nvalue = [111, 71]\nclass = 0", fillcolor="#f6d2b8"] ;
136 -> 140 ;
141 [label="gini = 0.278\nsamples = 12\nvalue = [2, 10]\nclass = 1", fillcolor="#61b1ea"] ;
140 -> 141 ;
142 [label="gini = 0.46\nsamples = 170\nvalue = [109, 61]\nclass = 0", fillcolor="#f4c8a8"] ;
140 -> 142 ;
143 [label="duration_ms <= 201718.5\ngini = 0.427\nsamples = 336\nvalue = [232, 104]\nclass = 0", fillcolor="#f1b992"] ;
115 -> 143 ;
144 [label="speechiness <= 0.197\ngini = 0.273\nsamples = 172\nvalue = [144, 28]\nclass = 0", fillcolor="#ea9a5f"] ;
143 -> 144 ;
145 [label="energy <= 0.597\ngini = 0.427\nsamples = 81\nvalue = [56, 25]\nclass = 0", fillcolor="#f1b991"] ;
144 -> 145 ;
146 [label="loudness <= -10.811\ngini = 0.324\nsamples = 64\nvalue = [51, 13]\nclass = 0", fillcolor="#eca16b"] ;
145 -> 146 ;
147 [label="gini = 0.427\nsamples = 42\nvalue = [29, 13]\nclass = 0", fillcolor="#f1b992"] ;
146 -> 147 ;
148 [label="gini = 0.0\nsamples = 22\nvalue = [22, 0]\nclass = 0", fillcolor="#e58139"] ;
146 -> 148 ;
149 [label="gini = 0.415\nsamples = 17\nvalue = [5, 12]\nclass = 1", fillcolor="#8bc6f0"] ;
145 -> 149 ;
150 [label="popularity <= 63.5\ngini = 0.064\nsamples = 91\nvalue = [88, 3]\nclass = 0", fillcolor="#e68540"] ;
144 -> 150 ;
151 [label="gini = 0.0\nsamples = 80\nvalue = [80, 0]\nclass = 0", fillcolor="#e58139"] ;
150 -> 151 ;
152 [label="gini = 0.397\nsamples = 11\nvalue = [8, 3]\nclass = 0", fillcolor="#efb083"] ;
150 -> 152 ;
153 [label="acousticness <= 0.194\ngini = 0.497\nsamples = 164\nvalue = [88, 76]\nclass = 0", fillcolor="#fbeee4"] ;
143 -> 153 ;
154 [label="popularity <= 58.5\ngini = 0.431\nsamples = 70\nvalue = [22, 48]\nclass = 1", fillcolor="#94caf1"] ;
153 -> 154 ;
155 [label="danceability <= 0.844\ngini = 0.493\nsamples = 50\nvalue = [22, 28]\nclass = 1", fillcolor="#d5eaf9"] ;
154 -> 155 ;
156 [label="gini = 0.49\nsamples = 35\nvalue = [20, 15]\nclass = 0", fillcolor="#f8e0ce"] ;
155 -> 156 ;
157 [label="gini = 0.231\nsamples = 15\nvalue = [2, 13]\nclass = 1", fillcolor="#57ace9"] ;
155 -> 157 ;
158 [label="gini = 0.0\nsamples = 20\nvalue = [0, 20]\nclass = 1", fillcolor="#399de5"] ;
154 -> 158 ;
159 [label="loudness <= -13.634\ngini = 0.418\nsamples = 94\nvalue = [66, 28]\nclass = 0", fillcolor="#f0b68d"] ;
153 -> 159 ;
160 [label="gini = 0.444\nsamples = 12\nvalue = [4, 8]\nclass = 1", fillcolor="#9ccef2"] ;
159 -> 160 ;
161 [label="popularity <= 60.5\ngini = 0.369\nsamples = 82\nvalue = [62, 20]\nclass = 0", fillcolor="#edaa79"] ;
159 -> 161 ;
162 [label="gini = 0.278\nsamples = 66\nvalue = [55, 11]\nclass = 0", fillcolor="#ea9a61"] ;
161 -> 162 ;
163 [label="gini = 0.492\nsamples = 16\nvalue = [7, 9]\nclass = 1", fillcolor="#d3e9f9"] ;
161 -> 163 ;
164 [label="duration_ms <= 203040.5\ngini = 0.384\nsamples = 6607\nvalue = [4892, 1715]\nclass = 0", fillcolor="#eead7e"] ;
114 -> 164 ;
165 [label="danceability <= 0.713\ngini = 0.309\nsamples = 2631\nvalue = [2128, 503]\nclass = 0", fillcolor="#eb9f68"] ;
164 -> 165 ;
166 [label="speechiness <= 0.066\ngini = 0.37\nsamples = 1552\nvalue = [1172, 380]\nclass = 0", fillcolor="#edaa79"] ;
165 -> 166 ;
167 [label="loudness <= -7.649\ngini = 0.421\nsamples = 955\nvalue = [667, 288]\nclass = 0", fillcolor="#f0b78e"] ;
166 -> 167 ;
168 [label="duration_ms <= 178873.0\ngini = 0.499\nsamples = 124\nvalue = [59, 65]\nclass = 1", fillcolor="#edf6fd"] ;
167 -> 168 ;
169 [label="gini = 0.462\nsamples = 69\nvalue = [25, 44]\nclass = 1", fillcolor="#aad5f4"] ;
168 -> 169 ;
170 [label="gini = 0.472\nsamples = 55\nvalue = [34, 21]\nclass = 0", fillcolor="#f5cfb3"] ;
168 -> 170 ;
171 [label="energy <= 0.664\ngini = 0.393\nsamples = 831\nvalue = [608, 223]\nclass = 0", fillcolor="#efaf82"] ;
167 -> 171 ;
172 [label="gini = 0.243\nsamples = 205\nvalue = [176, 29]\nclass = 0", fillcolor="#e9965a"] ;
171 -> 172 ;
173 [label="gini = 0.428\nsamples = 626\nvalue = [432, 194]\nclass = 0", fillcolor="#f1ba92"] ;
171 -> 173 ;
174 [label="popularity <= 58.5\ngini = 0.261\nsamples = 597\nvalue = [505, 92]\nclass = 0", fillcolor="#ea985d"] ;
166 -> 174 ;
175 [label="energy <= 0.8\ngini = 0.169\nsamples = 364\nvalue = [330, 34]\nclass = 0", fillcolor="#e88e4d"] ;
174 -> 175 ;
176 [label="gini = 0.106\nsamples = 195\nvalue = [184, 11]\nclass = 0", fillcolor="#e78945"] ;
175 -> 176 ;
177 [label="gini = 0.235\nsamples = 169\nvalue = [146, 23]\nclass = 0", fillcolor="#e99558"] ;
175 -> 177 ;
178 [label="liveness <= 0.637\ngini = 0.374\nsamples = 233\nvalue = [175, 58]\nclass = 0", fillcolor="#eeab7b"] ;
174 -> 178 ;
179 [label="gini = 0.353\nsamples = 223\nvalue = [172, 51]\nclass = 0", fillcolor="#eda674"] ;
178 -> 179 ;
180 [label="gini = 0.42\nsamples = 10\nvalue = [3, 7]\nclass = 1", fillcolor="#8ec7f0"] ;
178 -> 180 ;
181 [label="acousticness <= 0.043\ngini = 0.202\nsamples = 1079\nvalue = [956, 123]\nclass = 0", fillcolor="#e89152"] ;
165 -> 181 ;
182 [label="duration_ms <= 163933.5\ngini = 0.328\nsamples = 232\nvalue = [184, 48]\nclass = 0", fillcolor="#eca26d"] ;
181 -> 182 ;
183 [label="acousticness <= 0.003\ngini = 0.031\nsamples = 63\nvalue = [62, 1]\nclass = 0", fillcolor="#e5833c"] ;
182 -> 183 ;
184 [label="gini = 0.18\nsamples = 10\nvalue = [9, 1]\nclass = 0", fillcolor="#e88f4f"] ;
183 -> 184 ;
185 [label="gini = 0.0\nsamples = 53\nvalue = [53, 0]\nclass = 0", fillcolor="#e58139"] ;
183 -> 185 ;
186 [label="liveness <= 0.367\ngini = 0.402\nsamples = 169\nvalue = [122, 47]\nclass = 0", fillcolor="#efb285"] ;
182 -> 186 ;
187 [label="gini = 0.38\nsamples = 157\nvalue = [117, 40]\nclass = 0", fillcolor="#eeac7d"] ;
186 -> 187 ;
188 [label="gini = 0.486\nsamples = 12\nvalue = [5, 7]\nclass = 1", fillcolor="#c6e3f8"] ;
186 -> 188 ;
189 [label="speechiness <= 0.028\ngini = 0.161\nsamples = 847\nvalue = [772, 75]\nclass = 0", fillcolor="#e88d4c"] ;
181 -> 189 ;
190 [label="gini = 0.5\nsamples = 10\nvalue = [5, 5]\nclass = 0", fillcolor="#ffffff"] ;
189 -> 190 ;
191 [label="duration_ms <= 173961.0\ngini = 0.153\nsamples = 837\nvalue = [767, 70]\nclass = 0", fillcolor="#e78c4b"] ;
189 -> 191 ;
192 [label="gini = 0.085\nsamples = 381\nvalue = [364, 17]\nclass = 0", fillcolor="#e68742"] ;
191 -> 192 ;
193 [label="gini = 0.205\nsamples = 456\nvalue = [403, 53]\nclass = 0", fillcolor="#e89253"] ;
191 -> 193 ;
194 [label="popularity <= 56.5\ngini = 0.424\nsamples = 3976\nvalue = [2764, 1212]\nclass = 0", fillcolor="#f0b890"] ;
164 -> 194 ;
195 [label="acousticness <= 0.194\ngini = 0.367\nsamples = 1964\nvalue = [1488, 476]\nclass = 0", fillcolor="#eda978"] ;
194 -> 195 ;
196 [label="energy <= 0.934\ngini = 0.405\nsamples = 1317\nvalue = [945, 372]\nclass = 0", fillcolor="#efb387"] ;
195 -> 196 ;
197 [label="liveness <= 0.68\ngini = 0.42\nsamples = 1172\nvalue = [820, 352]\nclass = 0", fillcolor="#f0b78e"] ;
196 -> 197 ;
198 [label="gini = 0.427\nsamples = 1141\nvalue = [789, 352]\nclass = 0", fillcolor="#f1b991"] ;
197 -> 198 ;
199 [label="gini = 0.0\nsamples = 31\nvalue = [31, 0]\nclass = 0", fillcolor="#e58139"] ;
197 -> 199 ;
200 [label="loudness <= -4.974\ngini = 0.238\nsamples = 145\nvalue = [125, 20]\nclass = 0", fillcolor="#e99559"] ;
196 -> 200 ;
201 [label="gini = 0.469\nsamples = 24\nvalue = [15, 9]\nclass = 0", fillcolor="#f5cdb0"] ;
200 -> 201 ;
202 [label="gini = 0.165\nsamples = 121\nvalue = [110, 11]\nclass = 0", fillcolor="#e88e4d"] ;
200 -> 202 ;
203 [label="loudness <= -8.71\ngini = 0.27\nsamples = 647\nvalue = [543, 104]\nclass = 0", fillcolor="#ea995f"] ;
195 -> 203 ;
204 [label="duration_ms <= 233213.5\ngini = 0.448\nsamples = 59\nvalue = [39, 20]\nclass = 0", fillcolor="#f2c29f"] ;
203 -> 204 ;
205 [label="gini = 0.245\nsamples = 28\nvalue = [24, 4]\nclass = 0", fillcolor="#e9965a"] ;
204 -> 205 ;
206 [label="gini = 0.499\nsamples = 31\nvalue = [15, 16]\nclass = 1", fillcolor="#f3f9fd"] ;
204 -> 206 ;
207 [label="valence <= 0.854\ngini = 0.245\nsamples = 588\nvalue = [504, 84]\nclass = 0", fillcolor="#e9965a"] ;
203 -> 207 ;
208 [label="gini = 0.278\nsamples = 474\nvalue = [395, 79]\nclass = 0", fillcolor="#ea9a61"] ;
207 -> 208 ;
209 [label="gini = 0.084\nsamples = 114\nvalue = [109, 5]\nclass = 0", fillcolor="#e68742"] ;
207 -> 209 ;
210 [label="acousticness <= 0.277\ngini = 0.464\nsamples = 2012\nvalue = [1276, 736]\nclass = 0", fillcolor="#f4caab"] ;
194 -> 210 ;
211 [label="loudness <= -7.813\ngini = 0.481\nsamples = 1559\nvalue = [931, 628]\nclass = 0", fillcolor="#f7d6bf"] ;
210 -> 211 ;
212 [label="energy <= 0.646\ngini = 0.49\nsamples = 144\nvalue = [62, 82]\nclass = 1", fillcolor="#cfe7f9"] ;
211 -> 212 ;
213 [label="gini = 0.485\nsamples = 70\nvalue = [41, 29]\nclass = 0", fillcolor="#f7dac5"] ;
212 -> 213 ;
214 [label="gini = 0.407\nsamples = 74\nvalue = [21, 53]\nclass = 1", fillcolor="#87c4ef"] ;
212 -> 214 ;
215 [label="acousticness <= 0.069\ngini = 0.474\nsamples = 1415\nvalue = [869, 546]\nclass = 0", fillcolor="#f5d0b5"] ;
211 -> 215 ;
216 [label="gini = 0.49\nsamples = 820\nvalue = [469, 351]\nclass = 0", fillcolor="#f8dfcd"] ;
215 -> 216 ;
217 [label="gini = 0.441\nsamples = 595\nvalue = [400, 195]\nclass = 0", fillcolor="#f2be9a"] ;
215 -> 217 ;
218 [label="energy <= 0.721\ngini = 0.363\nsamples = 453\nvalue = [345, 108]\nclass = 0", fillcolor="#eda877"] ;
210 -> 218 ;
219 [label="liveness <= 0.209\ngini = 0.259\nsamples = 275\nvalue = [233, 42]\nclass = 0", fillcolor="#ea985d"] ;
218 -> 219 ;
220 [label="gini = 0.183\nsamples = 196\nvalue = [176, 20]\nclass = 0", fillcolor="#e88f50"] ;
219 -> 220 ;
221 [label="gini = 0.402\nsamples = 79\nvalue = [57, 22]\nclass = 0", fillcolor="#efb285"] ;
219 -> 221 ;
222 [label="instrumentalness <= 0.0\ngini = 0.467\nsamples = 178\nvalue = [112, 66]\nclass = 0", fillcolor="#f4cbae"] ;
218 -> 222 ;
223 [label="gini = 0.436\nsamples = 143\nvalue = [97, 46]\nclass = 0", fillcolor="#f1bd97"] ;
222 -> 223 ;
224 [label="gini = 0.49\nsamples = 35\nvalue = [15, 20]\nclass = 1", fillcolor="#cee6f8"] ;
222 -> 224 ;
225 [label="valence <= 0.686\ngini = 0.109\nsamples = 2330\nvalue = [2195, 135]\nclass = 0", fillcolor="#e78945"] ;
3 -> 225 ;
226 [label="valence <= 0.4\ngini = 0.063\nsamples = 2053\nvalue = [1986, 67]\nclass = 0", fillcolor="#e68540"] ;
225 -> 226 ;
227 [label="instrumentalness <= 0.641\ngini = 0.029\nsamples = 1518\nvalue = [1496, 22]\nclass = 0", fillcolor="#e5833c"] ;
226 -> 227 ;
228 [label="duration_ms <= 225218.0\ngini = 0.094\nsamples = 363\nvalue = [345, 18]\nclass = 0", fillcolor="#e68843"] ;
227 -> 228 ;
229 [label="popularity <= 62.5\ngini = 0.036\nsamples = 164\nvalue = [161, 3]\nclass = 0", fillcolor="#e5833d"] ;
228 -> 229 ;
230 [label="liveness <= 0.075\ngini = 0.014\nsamples = 142\nvalue = [141, 1]\nclass = 0", fillcolor="#e5823a"] ;
229 -> 230 ;
231 [label="gini = 0.18\nsamples = 10\nvalue = [9, 1]\nclass = 0", fillcolor="#e88f4f"] ;
230 -> 231 ;
232 [label="gini = 0.0\nsamples = 132\nvalue = [132, 0]\nclass = 0", fillcolor="#e58139"] ;
230 -> 232 ;
233 [label="liveness <= 0.115\ngini = 0.165\nsamples = 22\nvalue = [20, 2]\nclass = 0", fillcolor="#e88e4d"] ;
229 -> 233 ;
234 [label="gini = 0.0\nsamples = 12\nvalue = [12, 0]\nclass = 0", fillcolor="#e58139"] ;
233 -> 234 ;
235 [label="gini = 0.32\nsamples = 10\nvalue = [8, 2]\nclass = 0", fillcolor="#eca06a"] ;
233 -> 235 ;
236 [label="duration_ms <= 230704.5\ngini = 0.139\nsamples = 199\nvalue = [184, 15]\nclass = 0", fillcolor="#e78b49"] ;
228 -> 236 ;
237 [label="gini = 0.42\nsamples = 10\nvalue = [7, 3]\nclass = 0", fillcolor="#f0b78e"] ;
236 -> 237 ;
238 [label="popularity <= 54.5\ngini = 0.119\nsamples = 189\nvalue = [177, 12]\nclass = 0", fillcolor="#e78a46"] ;
236 -> 238 ;
239 [label="speechiness <= 0.031\ngini = 0.023\nsamples = 87\nvalue = [86, 1]\nclass = 0", fillcolor="#e5823b"] ;
238 -> 239 ;
240 [label="gini = 0.105\nsamples = 18\nvalue = [17, 1]\nclass = 0", fillcolor="#e78845"] ;
239 -> 240 ;
241 [label="gini = 0.0\nsamples = 69\nvalue = [69, 0]\nclass = 0", fillcolor="#e58139"] ;
239 -> 241 ;
242 [label="loudness <= -5.675\ngini = 0.192\nsamples = 102\nvalue = [91, 11]\nclass = 0", fillcolor="#e89051"] ;
238 -> 242 ;
243 [label="gini = 0.128\nsamples = 87\nvalue = [81, 6]\nclass = 0", fillcolor="#e78a48"] ;
242 -> 243 ;
244 [label="gini = 0.444\nsamples = 15\nvalue = [10, 5]\nclass = 0", fillcolor="#f2c09c"] ;
242 -> 244 ;
245 [label="acousticness <= 0.004\ngini = 0.007\nsamples = 1155\nvalue = [1151, 4]\nclass = 0", fillcolor="#e5813a"] ;
227 -> 245 ;
246 [label="popularity <= 58.5\ngini = 0.085\nsamples = 90\nvalue = [86, 4]\nclass = 0", fillcolor="#e68742"] ;
245 -> 246 ;
247 [label="gini = 0.0\nsamples = 65\nvalue = [65, 0]\nclass = 0", fillcolor="#e58139"] ;
246 -> 247 ;
248 [label="danceability <= 0.457\ngini = 0.269\nsamples = 25\nvalue = [21, 4]\nclass = 0", fillcolor="#ea995f"] ;
246 -> 248 ;
249 [label="gini = 0.0\nsamples = 10\nvalue = [10, 0]\nclass = 0", fillcolor="#e58139"] ;
248 -> 249 ;
250 [label="gini = 0.391\nsamples = 15\nvalue = [11, 4]\nclass = 0", fillcolor="#eeaf81"] ;
248 -> 250 ;
251 [label="gini = 0.0\nsamples = 1065\nvalue = [1065, 0]\nclass = 0", fillcolor="#e58139"] ;
245 -> 251 ;
252 [label="acousticness <= 0.505\ngini = 0.154\nsamples = 535\nvalue = [490, 45]\nclass = 0", fillcolor="#e78d4b"] ;
226 -> 252 ;
253 [label="loudness <= -13.844\ngini = 0.21\nsamples = 336\nvalue = [296, 40]\nclass = 0", fillcolor="#e99254"] ;
252 -> 253 ;
254 [label="gini = 0.492\nsamples = 16\nvalue = [9, 7]\nclass = 0", fillcolor="#f9e3d3"] ;
253 -> 254 ;
255 [label="instrumentalness <= 0.777\ngini = 0.185\nsamples = 320\nvalue = [287, 33]\nclass = 0", fillcolor="#e88f50"] ;
253 -> 255 ;
256 [label="loudness <= -11.487\ngini = 0.238\nsamples = 217\nvalue = [187, 30]\nclass = 0", fillcolor="#e99559"] ;
255 -> 256 ;
257 [label="gini = 0.48\nsamples = 10\nvalue = [4, 6]\nclass = 1", fillcolor="#bddef6"] ;
256 -> 257 ;
258 [label="speechiness <= 0.033\ngini = 0.205\nsamples = 207\nvalue = [183, 24]\nclass = 0", fillcolor="#e89253"] ;
256 -> 258 ;
259 [label="gini = 0.375\nsamples = 44\nvalue = [33, 11]\nclass = 0", fillcolor="#eeab7b"] ;
258 -> 259 ;
260 [label="gini = 0.147\nsamples = 163\nvalue = [150, 13]\nclass = 0", fillcolor="#e78c4a"] ;
258 -> 260 ;
261 [label="energy <= 0.877\ngini = 0.057\nsamples = 103\nvalue = [100, 3]\nclass = 0", fillcolor="#e6853f"] ;
255 -> 261 ;
262 [label="acousticness <= 0.001\ngini = 0.022\nsamples = 90\nvalue = [89, 1]\nclass = 0", fillcolor="#e5823b"] ;
261 -> 262 ;
263 [label="gini = 0.18\nsamples = 10\nvalue = [9, 1]\nclass = 0", fillcolor="#e88f4f"] ;
262 -> 263 ;
264 [label="gini = 0.0\nsamples = 80\nvalue = [80, 0]\nclass = 0", fillcolor="#e58139"] ;
262 -> 264 ;
265 [label="gini = 0.26\nsamples = 13\nvalue = [11, 2]\nclass = 0", fillcolor="#ea985d"] ;
261 -> 265 ;
266 [label="liveness <= 0.231\ngini = 0.049\nsamples = 199\nvalue = [194, 5]\nclass = 0", fillcolor="#e6843e"] ;
252 -> 266 ;
267 [label="speechiness <= 0.033\ngini = 0.022\nsamples = 178\nvalue = [176, 2]\nclass = 0", fillcolor="#e5823b"] ;
266 -> 267 ;
268 [label="valence <= 0.542\ngini = 0.142\nsamples = 26\nvalue = [24, 2]\nclass = 0", fillcolor="#e78c49"] ;
267 -> 268 ;
269 [label="gini = 0.0\nsamples = 16\nvalue = [16, 0]\nclass = 0", fillcolor="#e58139"] ;
268 -> 269 ;
270 [label="gini = 0.32\nsamples = 10\nvalue = [8, 2]\nclass = 0", fillcolor="#eca06a"] ;
268 -> 270 ;
271 [label="gini = 0.0\nsamples = 152\nvalue = [152, 0]\nclass = 0", fillcolor="#e58139"] ;
267 -> 271 ;
272 [label="instrumentalness <= 0.745\ngini = 0.245\nsamples = 21\nvalue = [18, 3]\nclass = 0", fillcolor="#e9965a"] ;
266 -> 272 ;
273 [label="gini = 0.0\nsamples = 11\nvalue = [11, 0]\nclass = 0", fillcolor="#e58139"] ;
272 -> 273 ;
274 [label="gini = 0.42\nsamples = 10\nvalue = [7, 3]\nclass = 0", fillcolor="#f0b78e"] ;
272 -> 274 ;
275 [label="duration_ms <= 209229.0\ngini = 0.37\nsamples = 277\nvalue = [209, 68]\nclass = 0", fillcolor="#edaa79"] ;
225 -> 275 ;
276 [label="valence <= 0.955\ngini = 0.223\nsamples = 141\nvalue = [123, 18]\nclass = 0", fillcolor="#e99356"] ;
275 -> 276 ;
277 [label="speechiness <= 0.034\ngini = 0.17\nsamples = 128\nvalue = [116, 12]\nclass = 0", fillcolor="#e88e4d"] ;
276 -> 277 ;
278 [label="gini = 0.444\nsamples = 18\nvalue = [12, 6]\nclass = 0", fillcolor="#f2c09c"] ;
277 -> 278 ;
279 [label="liveness <= 0.067\ngini = 0.103\nsamples = 110\nvalue = [104, 6]\nclass = 0", fillcolor="#e68844"] ;
277 -> 279 ;
280 [label="gini = 0.375\nsamples = 12\nvalue = [9, 3]\nclass = 0", fillcolor="#eeab7b"] ;
279 -> 280 ;
281 [label="liveness <= 0.202\ngini = 0.059\nsamples = 98\nvalue = [95, 3]\nclass = 0", fillcolor="#e6853f"] ;
279 -> 281 ;
282 [label="gini = 0.0\nsamples = 68\nvalue = [68, 0]\nclass = 0", fillcolor="#e58139"] ;
281 -> 282 ;
283 [label="loudness <= -9.278\ngini = 0.18\nsamples = 30\nvalue = [27, 3]\nclass = 0", fillcolor="#e88f4f"] ;
281 -> 283 ;
284 [label="gini = 0.42\nsamples = 10\nvalue = [7, 3]\nclass = 0", fillcolor="#f0b78e"] ;
283 -> 284 ;
285 [label="gini = 0.0\nsamples = 20\nvalue = [20, 0]\nclass = 0", fillcolor="#e58139"] ;
283 -> 285 ;
286 [label="gini = 0.497\nsamples = 13\nvalue = [7, 6]\nclass = 0", fillcolor="#fbede3"] ;
276 -> 286 ;
287 [label="loudness <= -10.736\ngini = 0.465\nsamples = 136\nvalue = [86, 50]\nclass = 0", fillcolor="#f4caac"] ;
275 -> 287 ;
288 [label="valence <= 0.791\ngini = 0.436\nsamples = 28\nvalue = [9, 19]\nclass = 1", fillcolor="#97cbf1"] ;
287 -> 288 ;
289 [label="gini = 0.492\nsamples = 16\nvalue = [9, 7]\nclass = 0", fillcolor="#f9e3d3"] ;
288 -> 289 ;
290 [label="gini = 0.0\nsamples = 12\nvalue = [0, 12]\nclass = 1", fillcolor="#399de5"] ;
288 -> 290 ;
291 [label="tempo <= 95.81\ngini = 0.409\nsamples = 108\nvalue = [77, 31]\nclass = 0", fillcolor="#efb489"] ;
287 -> 291 ;
292 [label="gini = 0.42\nsamples = 10\nvalue = [3, 7]\nclass = 1", fillcolor="#8ec7f0"] ;
291 -> 292 ;
293 [label="duration_ms <= 219906.5\ngini = 0.37\nsamples = 98\nvalue = [74, 24]\nclass = 0", fillcolor="#edaa79"] ;
291 -> 293 ;
294 [label="gini = 0.486\nsamples = 12\nvalue = [5, 7]\nclass = 1", fillcolor="#c6e3f8"] ;
293 -> 294 ;
295 [label="instrumentalness <= 0.237\ngini = 0.317\nsamples = 86\nvalue = [69, 17]\nclass = 0", fillcolor="#eba06a"] ;
293 -> 295 ;
296 [label="gini = 0.497\nsamples = 13\nvalue = [7, 6]\nclass = 0", fillcolor="#fbede3"] ;
295 -> 296 ;
297 [label="tempo <= 111.462\ngini = 0.256\nsamples = 73\nvalue = [62, 11]\nclass = 0", fillcolor="#ea975c"] ;
295 -> 297 ;
298 [label="gini = 0.444\nsamples = 18\nvalue = [12, 6]\nclass = 0", fillcolor="#f2c09c"] ;
297 -> 298 ;
299 [label="gini = 0.165\nsamples = 55\nvalue = [50, 5]\nclass = 0", fillcolor="#e88e4d"] ;
297 -> 299 ;
300 [label="duration_ms <= 213513.5\ngini = 0.5\nsamples = 4326\nvalue = [2181, 2145]\nclass = 0", fillcolor="#fffdfc"] ;
2 -> 300 ;
301 [label="instrumentalness <= 0.474\ngini = 0.483\nsamples = 2104\nvalue = [1248, 856]\nclass = 0", fillcolor="#f7d7c1"] ;
300 -> 301 ;
302 [label="popularity <= 72.5\ngini = 0.489\nsamples = 2004\nvalue = [1149, 855]\nclass = 0", fillcolor="#f8dfcc"] ;
301 -> 302 ;
303 [label="speechiness <= 0.031\ngini = 0.467\nsamples = 1128\nvalue = [708, 420]\nclass = 0", fillcolor="#f4ccae"] ;
302 -> 303 ;
304 [label="energy <= 0.428\ngini = 0.451\nsamples = 93\nvalue = [32, 61]\nclass = 1", fillcolor="#a1d0f3"] ;
303 -> 304 ;
305 [label="gini = 0.457\nsamples = 17\nvalue = [11, 6]\nclass = 0", fillcolor="#f3c6a5"] ;
304 -> 305 ;
306 [label="loudness <= -5.904\ngini = 0.4\nsamples = 76\nvalue = [21, 55]\nclass = 1", fillcolor="#85c2ef"] ;
304 -> 306 ;
307 [label="speechiness <= 0.026\ngini = 0.258\nsamples = 46\nvalue = [7, 39]\nclass = 1", fillcolor="#5dafea"] ;
306 -> 307 ;
308 [label="gini = 0.48\nsamples = 10\nvalue = [4, 6]\nclass = 1", fillcolor="#bddef6"] ;
307 -> 308 ;
309 [label="duration_ms <= 193726.5\ngini = 0.153\nsamples = 36\nvalue = [3, 33]\nclass = 1", fillcolor="#4ba6e7"] ;
307 -> 309 ;
310 [label="gini = 0.291\nsamples = 17\nvalue = [3, 14]\nclass = 1", fillcolor="#63b2eb"] ;
309 -> 310 ;
311 [label="gini = 0.0\nsamples = 19\nvalue = [0, 19]\nclass = 1", fillcolor="#399de5"] ;
309 -> 311 ;
312 [label="instrumentalness <= 0.0\ngini = 0.498\nsamples = 30\nvalue = [14, 16]\nclass = 1", fillcolor="#e6f3fc"] ;
306 -> 312 ;
313 [label="gini = 0.432\nsamples = 19\nvalue = [6, 13]\nclass = 1", fillcolor="#94caf1"] ;
312 -> 313 ;
314 [label="gini = 0.397\nsamples = 11\nvalue = [8, 3]\nclass = 0", fillcolor="#efb083"] ;
312 -> 314 ;
315 [label="valence <= 0.522\ngini = 0.453\nsamples = 1035\nvalue = [676, 359]\nclass = 0", fillcolor="#f3c4a2"] ;
303 -> 315 ;
316 [label="danceability <= 0.445\ngini = 0.387\nsamples = 468\nvalue = [345, 123]\nclass = 0", fillcolor="#eeae80"] ;
315 -> 316 ;
317 [label="tempo <= 120.227\ngini = 0.498\nsamples = 58\nvalue = [31, 27]\nclass = 0", fillcolor="#fcefe5"] ;
316 -> 317 ;
318 [label="energy <= 0.516\ngini = 0.298\nsamples = 22\nvalue = [18, 4]\nclass = 0", fillcolor="#eb9d65"] ;
317 -> 318 ;
319 [label="gini = 0.42\nsamples = 10\nvalue = [7, 3]\nclass = 0", fillcolor="#f0b78e"] ;
318 -> 319 ;
320 [label="gini = 0.153\nsamples = 12\nvalue = [11, 1]\nclass = 0", fillcolor="#e78c4b"] ;
318 -> 320 ;
321 [label="speechiness <= 0.082\ngini = 0.461\nsamples = 36\nvalue = [13, 23]\nclass = 1", fillcolor="#a9d4f4"] ;
317 -> 321 ;
322 [label="gini = 0.33\nsamples = 24\nvalue = [5, 19]\nclass = 1", fillcolor="#6db7ec"] ;
321 -> 322 ;
323 [label="gini = 0.444\nsamples = 12\nvalue = [8, 4]\nclass = 0", fillcolor="#f2c09c"] ;
321 -> 323 ;
324 [label="acousticness <= 0.218\ngini = 0.359\nsamples = 410\nvalue = [314, 96]\nclass = 0", fillcolor="#eda876"] ;
316 -> 324 ;
325 [label="valence <= 0.416\ngini = 0.406\nsamples = 265\nvalue = [190, 75]\nclass = 0", fillcolor="#efb387"] ;
324 -> 325 ;
326 [label="gini = 0.336\nsamples = 159\nvalue = [125, 34]\nclass = 0", fillcolor="#eca36f"] ;
325 -> 326 ;
327 [label="gini = 0.474\nsamples = 106\nvalue = [65, 41]\nclass = 0", fillcolor="#f5d0b6"] ;
325 -> 327 ;
328 [label="speechiness <= 0.042\ngini = 0.248\nsamples = 145\nvalue = [124, 21]\nclass = 0", fillcolor="#e9965b"] ;
324 -> 328 ;
329 [label="gini = 0.364\nsamples = 46\nvalue = [35, 11]\nclass = 0", fillcolor="#eda977"] ;
328 -> 329 ;
330 [label="gini = 0.182\nsamples = 99\nvalue = [89, 10]\nclass = 0", fillcolor="#e88f4f"] ;
328 -> 330 ;
331 [label="danceability <= 0.69\ngini = 0.486\nsamples = 567\nvalue = [331, 236]\nclass = 0", fillcolor="#f8dbc6"] ;
315 -> 331 ;
332 [label="speechiness <= 0.082\ngini = 0.5\nsamples = 297\nvalue = [146, 151]\nclass = 1", fillcolor="#f8fcfe"] ;
331 -> 332 ;
333 [label="time_signature <= 3.5\ngini = 0.484\nsamples = 202\nvalue = [83, 119]\nclass = 1", fillcolor="#c3e1f7"] ;
332 -> 333 ;
334 [label="gini = 0.153\nsamples = 12\nvalue = [11, 1]\nclass = 0", fillcolor="#e78c4b"] ;
333 -> 334 ;
335 [label="gini = 0.471\nsamples = 190\nvalue = [72, 118]\nclass = 1", fillcolor="#b2d9f5"] ;
333 -> 335 ;
336 [label="danceability <= 0.623\ngini = 0.447\nsamples = 95\nvalue = [63, 32]\nclass = 0", fillcolor="#f2c19e"] ;
332 -> 336 ;
337 [label="gini = 0.344\nsamples = 59\nvalue = [46, 13]\nclass = 0", fillcolor="#eca571"] ;
336 -> 337 ;
338 [label="gini = 0.498\nsamples = 36\nvalue = [17, 19]\nclass = 1", fillcolor="#eaf5fc"] ;
336 -> 338 ;
339 [label="loudness <= -6.296\ngini = 0.431\nsamples = 270\nvalue = [185, 85]\nclass = 0", fillcolor="#f1bb94"] ;
331 -> 339 ;
340 [label="valence <= 0.762\ngini = 0.485\nsamples = 99\nvalue = [58, 41]\nclass = 0", fillcolor="#f7dac5"] ;
339 -> 340 ;
341 [label="gini = 0.422\nsamples = 66\nvalue = [46, 20]\nclass = 0", fillcolor="#f0b88f"] ;
340 -> 341 ;
342 [label="gini = 0.463\nsamples = 33\nvalue = [12, 21]\nclass = 1", fillcolor="#aad5f4"] ;
340 -> 342 ;
343 [label="liveness <= 0.053\ngini = 0.382\nsamples = 171\nvalue = [127, 44]\nclass = 0", fillcolor="#eead7e"] ;
339 -> 343 ;
344 [label="gini = 0.42\nsamples = 10\nvalue = [3, 7]\nclass = 1", fillcolor="#8ec7f0"] ;
343 -> 344 ;
345 [label="gini = 0.354\nsamples = 161\nvalue = [124, 37]\nclass = 0", fillcolor="#eda774"] ;
343 -> 345 ;
346 [label="energy <= 0.839\ngini = 0.5\nsamples = 876\nvalue = [441, 435]\nclass = 0", fillcolor="#fffdfc"] ;
302 -> 346 ;
347 [label="duration_ms <= 183225.5\ngini = 0.499\nsamples = 759\nvalue = [400, 359]\nclass = 0", fillcolor="#fcf2eb"] ;
346 -> 347 ;
348 [label="speechiness <= 0.038\ngini = 0.484\nsamples = 326\nvalue = [192, 134]\nclass = 0", fillcolor="#f7d9c3"] ;
347 -> 348 ;
349 [label="valence <= 0.31\ngini = 0.464\nsamples = 52\nvalue = [19, 33]\nclass = 1", fillcolor="#abd5f4"] ;
348 -> 349 ;
350 [label="gini = 0.444\nsamples = 15\nvalue = [10, 5]\nclass = 0", fillcolor="#f2c09c"] ;
349 -> 350 ;
351 [label="loudness <= -6.62\ngini = 0.368\nsamples = 37\nvalue = [9, 28]\nclass = 1", fillcolor="#79bced"] ;
349 -> 351 ;
352 [label="gini = 0.0\nsamples = 19\nvalue = [0, 19]\nclass = 1", fillcolor="#399de5"] ;
351 -> 352 ;
353 [label="gini = 0.5\nsamples = 18\nvalue = [9, 9]\nclass = 0", fillcolor="#ffffff"] ;
351 -> 353 ;
354 [label="popularity <= 77.5\ngini = 0.465\nsamples = 274\nvalue = [173, 101]\nclass = 0", fillcolor="#f4cbad"] ;
348 -> 354 ;
355 [label="liveness <= 0.292\ngini = 0.402\nsamples = 147\nvalue = [106, 41]\nclass = 0", fillcolor="#efb286"] ;
354 -> 355 ;
356 [label="gini = 0.354\nsamples = 126\nvalue = [97, 29]\nclass = 0", fillcolor="#eda774"] ;
355 -> 356 ;
357 [label="gini = 0.49\nsamples = 21\nvalue = [9, 12]\nclass = 1", fillcolor="#cee6f8"] ;
355 -> 357 ;
358 [label="danceability <= 0.867\ngini = 0.498\nsamples = 127\nvalue = [67, 60]\nclass = 0", fillcolor="#fcf2ea"] ;
354 -> 358 ;
359 [label="gini = 0.481\nsamples = 97\nvalue = [58, 39]\nclass = 0", fillcolor="#f6d6be"] ;
358 -> 359 ;
360 [label="gini = 0.42\nsamples = 30\nvalue = [9, 21]\nclass = 1", fillcolor="#8ec7f0"] ;
358 -> 360 ;
361 [label="liveness <= 0.194\ngini = 0.499\nsamples = 433\nvalue = [208, 225]\nclass = 1", fillcolor="#f0f8fd"] ;
347 -> 361 ;
362 [label="instrumentalness <= 0.0\ngini = 0.494\nsamples = 312\nvalue = [139, 173]\nclass = 1", fillcolor="#d8ecfa"] ;
361 -> 362 ;
363 [label="acousticness <= 0.022\ngini = 0.483\nsamples = 245\nvalue = [100, 145]\nclass = 1", fillcolor="#c2e1f7"] ;
362 -> 363 ;
364 [label="gini = 0.353\nsamples = 35\nvalue = [8, 27]\nclass = 1", fillcolor="#74baed"] ;
363 -> 364 ;
365 [label="gini = 0.492\nsamples = 210\nvalue = [92, 118]\nclass = 1", fillcolor="#d3e9f9"] ;
363 -> 365 ;
366 [label="duration_ms <= 206293.0\ngini = 0.487\nsamples = 67\nvalue = [39, 28]\nclass = 0", fillcolor="#f8dbc7"] ;
362 -> 366 ;
367 [label="gini = 0.5\nsamples = 51\nvalue = [26, 25]\nclass = 0", fillcolor="#fefaf7"] ;
366 -> 367 ;
368 [label="gini = 0.305\nsamples = 16\nvalue = [13, 3]\nclass = 0", fillcolor="#eb9e67"] ;
366 -> 368 ;
369 [label="loudness <= -8.624\ngini = 0.49\nsamples = 121\nvalue = [69, 52]\nclass = 0", fillcolor="#f9e0ce"] ;
361 -> 369 ;
370 [label="gini = 0.18\nsamples = 10\nvalue = [1, 9]\nclass = 1", fillcolor="#4fa8e8"] ;
369 -> 370 ;
371 [label="acousticness <= 0.356\ngini = 0.475\nsamples = 111\nvalue = [68, 43]\nclass = 0", fillcolor="#f5d1b6"] ;
369 -> 371 ;
372 [label="gini = 0.491\nsamples = 95\nvalue = [54, 41]\nclass = 0", fillcolor="#f9e1cf"] ;
371 -> 372 ;
373 [label="gini = 0.219\nsamples = 16\nvalue = [14, 2]\nclass = 0", fillcolor="#e99355"] ;
371 -> 373 ;
374 [label="loudness <= -4.0\ngini = 0.455\nsamples = 117\nvalue = [41, 76]\nclass = 1", fillcolor="#a4d2f3"] ;
346 -> 374 ;
375 [label="acousticness <= 0.111\ngini = 0.367\nsamples = 62\nvalue = [15, 47]\nclass = 1", fillcolor="#78bced"] ;
374 -> 375 ;
376 [label="acousticness <= 0.027\ngini = 0.311\nsamples = 52\nvalue = [10, 42]\nclass = 1", fillcolor="#68b4eb"] ;
375 -> 376 ;
377 [label="instrumentalness <= 0.0\ngini = 0.42\nsamples = 30\nvalue = [9, 21]\nclass = 1", fillcolor="#8ec7f0"] ;
376 -> 377 ;
378 [label="gini = 0.219\nsamples = 16\nvalue = [2, 14]\nclass = 1", fillcolor="#55abe9"] ;
377 -> 378 ;
379 [label="gini = 0.5\nsamples = 14\nvalue = [7, 7]\nclass = 0", fillcolor="#ffffff"] ;
377 -> 379 ;
380 [label="duration_ms <= 200019.5\ngini = 0.087\nsamples = 22\nvalue = [1, 21]\nclass = 1", fillcolor="#42a2e6"] ;
376 -> 380 ;
381 [label="gini = 0.18\nsamples = 10\nvalue = [1, 9]\nclass = 1", fillcolor="#4fa8e8"] ;
380 -> 381 ;
382 [label="gini = 0.0\nsamples = 12\nvalue = [0, 12]\nclass = 1", fillcolor="#399de5"] ;
380 -> 382 ;
383 [label="gini = 0.5\nsamples = 10\nvalue = [5, 5]\nclass = 0", fillcolor="#ffffff"] ;
375 -> 383 ;
384 [label="danceability <= 0.635\ngini = 0.499\nsamples = 55\nvalue = [26, 29]\nclass = 1", fillcolor="#ebf5fc"] ;
374 -> 384 ;
385 [label="tempo <= 128.976\ngini = 0.393\nsamples = 26\nvalue = [7, 19]\nclass = 1", fillcolor="#82c1ef"] ;
384 -> 385 ;
386 [label="gini = 0.165\nsamples = 11\nvalue = [1, 10]\nclass = 1", fillcolor="#4da7e8"] ;
385 -> 386 ;
387 [label="gini = 0.48\nsamples = 15\nvalue = [6, 9]\nclass = 1", fillcolor="#bddef6"] ;
385 -> 387 ;
388 [label="key <= 3.0\ngini = 0.452\nsamples = 29\nvalue = [19, 10]\nclass = 0", fillcolor="#f3c3a1"] ;
384 -> 388 ;
389 [label="gini = 0.165\nsamples = 11\nvalue = [10, 1]\nclass = 0", fillcolor="#e88e4d"] ;
388 -> 389 ;
390 [label="gini = 0.5\nsamples = 18\nvalue = [9, 9]\nclass = 0", fillcolor="#ffffff"] ;
388 -> 390 ;
391 [label="valence <= 0.541\ngini = 0.02\nsamples = 100\nvalue = [99, 1]\nclass = 0", fillcolor="#e5823b"] ;
301 -> 391 ;
392 [label="gini = 0.0\nsamples = 90\nvalue = [90, 0]\nclass = 0", fillcolor="#e58139"] ;
391 -> 392 ;
393 [label="gini = 0.18\nsamples = 10\nvalue = [9, 1]\nclass = 0", fillcolor="#e88f4f"] ;
391 -> 393 ;
394 [label="popularity <= 71.5\ngini = 0.487\nsamples = 2222\nvalue = [933, 1289]\nclass = 1", fillcolor="#c8e4f8"] ;
300 -> 394 ;
395 [label="acousticness <= 0.338\ngini = 0.5\nsamples = 1158\nvalue = [581, 577]\nclass = 0", fillcolor="#fffefe"] ;
394 -> 395 ;
396 [label="valence <= 0.513\ngini = 0.494\nsamples = 854\nvalue = [382, 472]\nclass = 1", fillcolor="#d9ecfa"] ;
395 -> 396 ;
397 [label="speechiness <= 0.031\ngini = 0.499\nsamples = 450\nvalue = [234, 216]\nclass = 0", fillcolor="#fdf5f0"] ;
396 -> 397 ;
398 [label="energy <= 0.657\ngini = 0.39\nsamples = 49\nvalue = [13, 36]\nclass = 1", fillcolor="#80c0ee"] ;
397 -> 398 ;
399 [label="loudness <= -8.658\ngini = 0.295\nsamples = 39\nvalue = [7, 32]\nclass = 1", fillcolor="#64b2eb"] ;
398 -> 399 ;
400 [label="gini = 0.0\nsamples = 12\nvalue = [0, 12]\nclass = 1", fillcolor="#399de5"] ;
399 -> 400 ;
401 [label="energy <= 0.51\ngini = 0.384\nsamples = 27\nvalue = [7, 20]\nclass = 1", fillcolor="#7ebfee"] ;
399 -> 401 ;
402 [label="gini = 0.49\nsamples = 14\nvalue = [6, 8]\nclass = 1", fillcolor="#cee6f8"] ;
401 -> 402 ;
403 [label="gini = 0.142\nsamples = 13\nvalue = [1, 12]\nclass = 1", fillcolor="#49a5e7"] ;
401 -> 403 ;
404 [label="gini = 0.48\nsamples = 10\nvalue = [6, 4]\nclass = 0", fillcolor="#f6d5bd"] ;
398 -> 404 ;
405 [label="loudness <= -2.714\ngini = 0.495\nsamples = 401\nvalue = [221, 180]\nclass = 0", fillcolor="#fae8da"] ;
397 -> 405 ;
406 [label="valence <= 0.106\ngini = 0.491\nsamples = 389\nvalue = [220, 169]\nclass = 0", fillcolor="#f9e2d1"] ;
405 -> 406 ;
407 [label="instrumentalness <= 0.0\ngini = 0.26\nsamples = 26\nvalue = [22, 4]\nclass = 0", fillcolor="#ea985d"] ;
406 -> 407 ;
408 [label="gini = 0.48\nsamples = 10\nvalue = [6, 4]\nclass = 0", fillcolor="#f6d5bd"] ;
407 -> 408 ;
409 [label="gini = 0.0\nsamples = 16\nvalue = [16, 0]\nclass = 0", fillcolor="#e58139"] ;
407 -> 409 ;
410 [label="loudness <= -9.417\ngini = 0.496\nsamples = 363\nvalue = [198, 165]\nclass = 0", fillcolor="#fbeade"] ;
406 -> 410 ;
411 [label="gini = 0.444\nsamples = 39\nvalue = [13, 26]\nclass = 1", fillcolor="#9ccef2"] ;
410 -> 411 ;
412 [label="gini = 0.49\nsamples = 324\nvalue = [185, 139]\nclass = 0", fillcolor="#f9e0ce"] ;
410 -> 412 ;
413 [label="gini = 0.153\nsamples = 12\nvalue = [1, 11]\nclass = 1", fillcolor="#4ba6e7"] ;
405 -> 413 ;
414 [label="loudness <= -6.183\ngini = 0.464\nsamples = 404\nvalue = [148, 256]\nclass = 1", fillcolor="#abd6f4"] ;
396 -> 414 ;
415 [label="speechiness <= 0.068\ngini = 0.32\nsamples = 165\nvalue = [33, 132]\nclass = 1", fillcolor="#6ab6ec"] ;
414 -> 415 ;
416 [label="loudness <= -8.053\ngini = 0.222\nsamples = 110\nvalue = [14, 96]\nclass = 1", fillcolor="#56abe9"] ;
415 -> 416 ;
417 [label="energy <= 0.771\ngini = 0.077\nsamples = 50\nvalue = [2, 48]\nclass = 1", fillcolor="#41a1e6"] ;
416 -> 417 ;
418 [label="gini = 0.0\nsamples = 40\nvalue = [0, 40]\nclass = 1", fillcolor="#399de5"] ;
417 -> 418 ;
419 [label="gini = 0.32\nsamples = 10\nvalue = [2, 8]\nclass = 1", fillcolor="#6ab6ec"] ;
417 -> 419 ;
420 [label="energy <= 0.587\ngini = 0.32\nsamples = 60\nvalue = [12, 48]\nclass = 1", fillcolor="#6ab6ec"] ;
416 -> 420 ;
421 [label="gini = 0.497\nsamples = 13\nvalue = [7, 6]\nclass = 0", fillcolor="#fbede3"] ;
420 -> 421 ;
422 [label="gini = 0.19\nsamples = 47\nvalue = [5, 42]\nclass = 1", fillcolor="#51a9e8"] ;
420 -> 422 ;
423 [label="liveness <= 0.139\ngini = 0.452\nsamples = 55\nvalue = [19, 36]\nclass = 1", fillcolor="#a2d1f3"] ;
415 -> 423 ;
424 [label="acousticness <= 0.127\ngini = 0.327\nsamples = 34\nvalue = [7, 27]\nclass = 1", fillcolor="#6cb6ec"] ;
423 -> 424 ;
425 [label="gini = 0.172\nsamples = 21\nvalue = [2, 19]\nclass = 1", fillcolor="#4ea7e8"] ;
424 -> 425 ;
426 [label="gini = 0.473\nsamples = 13\nvalue = [5, 8]\nclass = 1", fillcolor="#b5daf5"] ;
424 -> 426 ;
427 [label="energy <= 0.575\ngini = 0.49\nsamples = 21\nvalue = [12, 9]\nclass = 0", fillcolor="#f8e0ce"] ;
423 -> 427 ;
428 [label="gini = 0.32\nsamples = 10\nvalue = [8, 2]\nclass = 0", fillcolor="#eca06a"] ;
427 -> 428 ;
429 [label="gini = 0.463\nsamples = 11\nvalue = [4, 7]\nclass = 1", fillcolor="#aad5f4"] ;
427 -> 429 ;
430 [label="popularity <= 68.5\ngini = 0.499\nsamples = 239\nvalue = [115, 124]\nclass = 1", fillcolor="#f1f8fd"] ;
414 -> 430 ;
431 [label="key <= 4.5\ngini = 0.478\nsamples = 106\nvalue = [64, 42]\nclass = 0", fillcolor="#f6d4bb"] ;
430 -> 431 ;
432 [label="speechiness <= 0.049\ngini = 0.349\nsamples = 40\nvalue = [31, 9]\nclass = 0", fillcolor="#eda672"] ;
431 -> 432 ;
433 [label="gini = 0.49\nsamples = 14\nvalue = [8, 6]\nclass = 0", fillcolor="#f8e0ce"] ;
432 -> 433 ;
434 [label="gini = 0.204\nsamples = 26\nvalue = [23, 3]\nclass = 0", fillcolor="#e89153"] ;
432 -> 434 ;
435 [label="liveness <= 0.085\ngini = 0.5\nsamples = 66\nvalue = [33, 33]\nclass = 0", fillcolor="#ffffff"] ;
431 -> 435 ;
436 [label="gini = 0.32\nsamples = 15\nvalue = [3, 12]\nclass = 1", fillcolor="#6ab6ec"] ;
435 -> 436 ;
437 [label="gini = 0.484\nsamples = 51\nvalue = [30, 21]\nclass = 0", fillcolor="#f7d9c4"] ;
435 -> 437 ;
438 [label="acousticness <= 0.029\ngini = 0.473\nsamples = 133\nvalue = [51, 82]\nclass = 1", fillcolor="#b4daf5"] ;
430 -> 438 ;
439 [label="instrumentalness <= 0.0\ngini = 0.338\nsamples = 51\nvalue = [11, 40]\nclass = 1", fillcolor="#6fb8ec"] ;
438 -> 439 ;
440 [label="gini = 0.224\nsamples = 39\nvalue = [5, 34]\nclass = 1", fillcolor="#56abe9"] ;
439 -> 440 ;
441 [label="gini = 0.5\nsamples = 12\nvalue = [6, 6]\nclass = 0", fillcolor="#ffffff"] ;
439 -> 441 ;
442 [label="speechiness <= 0.052\ngini = 0.5\nsamples = 82\nvalue = [40, 42]\nclass = 1", fillcolor="#f6fafe"] ;
438 -> 442 ;
443 [label="gini = 0.456\nsamples = 37\nvalue = [13, 24]\nclass = 1", fillcolor="#a4d2f3"] ;
442 -> 443 ;
444 [label="gini = 0.48\nsamples = 45\nvalue = [27, 18]\nclass = 0", fillcolor="#f6d5bd"] ;
442 -> 444 ;
445 [label="duration_ms <= 265713.0\ngini = 0.452\nsamples = 304\nvalue = [199, 105]\nclass = 0", fillcolor="#f3c3a1"] ;
395 -> 445 ;
446 [label="speechiness <= 0.03\ngini = 0.383\nsamples = 209\nvalue = [155, 54]\nclass = 0", fillcolor="#eead7e"] ;
445 -> 446 ;
447 [label="danceability <= 0.531\ngini = 0.5\nsamples = 37\nvalue = [19, 18]\nclass = 0", fillcolor="#fef8f5"] ;
446 -> 447 ;
448 [label="gini = 0.298\nsamples = 11\nvalue = [2, 9]\nclass = 1", fillcolor="#65b3eb"] ;
447 -> 448 ;
449 [label="danceability <= 0.598\ngini = 0.453\nsamples = 26\nvalue = [17, 9]\nclass = 0", fillcolor="#f3c4a2"] ;
447 -> 449 ;
450 [label="gini = 0.165\nsamples = 11\nvalue = [10, 1]\nclass = 0", fillcolor="#e88e4d"] ;
449 -> 450 ;
451 [label="gini = 0.498\nsamples = 15\nvalue = [7, 8]\nclass = 1", fillcolor="#e6f3fc"] ;
449 -> 451 ;
452 [label="valence <= 0.604\ngini = 0.331\nsamples = 172\nvalue = [136, 36]\nclass = 0", fillcolor="#eca26d"] ;
446 -> 452 ;
453 [label="danceability <= 0.45\ngini = 0.263\nsamples = 135\nvalue = [114, 21]\nclass = 0", fillcolor="#ea985d"] ;
452 -> 453 ;
454 [label="valence <= 0.208\ngini = 0.459\nsamples = 28\nvalue = [18, 10]\nclass = 0", fillcolor="#f3c7a7"] ;
453 -> 454 ;
455 [label="gini = 0.0\nsamples = 10\nvalue = [10, 0]\nclass = 0", fillcolor="#e58139"] ;
454 -> 455 ;
456 [label="gini = 0.494\nsamples = 18\nvalue = [8, 10]\nclass = 1", fillcolor="#d7ebfa"] ;
454 -> 456 ;
457 [label="liveness <= 0.2\ngini = 0.184\nsamples = 107\nvalue = [96, 11]\nclass = 0", fillcolor="#e88f50"] ;
453 -> 457 ;
458 [label="gini = 0.091\nsamples = 84\nvalue = [80, 4]\nclass = 0", fillcolor="#e68743"] ;
457 -> 458 ;
459 [label="gini = 0.423\nsamples = 23\nvalue = [16, 7]\nclass = 0", fillcolor="#f0b890"] ;
457 -> 459 ;
460 [label="danceability <= 0.806\ngini = 0.482\nsamples = 37\nvalue = [22, 15]\nclass = 0", fillcolor="#f7d7c0"] ;
452 -> 460 ;
461 [label="acousticness <= 0.584\ngini = 0.499\nsamples = 27\nvalue = [13, 14]\nclass = 1", fillcolor="#f1f8fd"] ;
460 -> 461 ;
462 [label="gini = 0.391\nsamples = 15\nvalue = [4, 11]\nclass = 1", fillcolor="#81c1ee"] ;
461 -> 462 ;
463 [label="gini = 0.375\nsamples = 12\nvalue = [9, 3]\nclass = 0", fillcolor="#eeab7b"] ;
461 -> 463 ;
464 [label="gini = 0.18\nsamples = 10\nvalue = [9, 1]\nclass = 0", fillcolor="#e88f4f"] ;
460 -> 464 ;
465 [label="acousticness <= 0.801\ngini = 0.497\nsamples = 95\nvalue = [44, 51]\nclass = 1", fillcolor="#e4f2fb"] ;
445 -> 465 ;
466 [label="loudness <= -7.028\ngini = 0.472\nsamples = 81\nvalue = [31, 50]\nclass = 1", fillcolor="#b4daf5"] ;
465 -> 466 ;
467 [label="speechiness <= 0.062\ngini = 0.4\nsamples = 58\nvalue = [16, 42]\nclass = 1", fillcolor="#84c2ef"] ;
466 -> 467 ;
468 [label="valence <= 0.174\ngini = 0.308\nsamples = 42\nvalue = [8, 34]\nclass = 1", fillcolor="#68b4eb"] ;
467 -> 468 ;
469 [label="gini = 0.5\nsamples = 10\nvalue = [5, 5]\nclass = 0", fillcolor="#ffffff"] ;
468 -> 469 ;
470 [label="gini = 0.17\nsamples = 32\nvalue = [3, 29]\nclass = 1", fillcolor="#4da7e8"] ;
468 -> 470 ;
471 [label="gini = 0.5\nsamples = 16\nvalue = [8, 8]\nclass = 0", fillcolor="#ffffff"] ;
467 -> 471 ;
472 [label="loudness <= -5.3\ngini = 0.454\nsamples = 23\nvalue = [15, 8]\nclass = 0", fillcolor="#f3c4a3"] ;
466 -> 472 ;
473 [label="gini = 0.26\nsamples = 13\nvalue = [11, 2]\nclass = 0", fillcolor="#ea985d"] ;
472 -> 473 ;
474 [label="gini = 0.48\nsamples = 10\nvalue = [4, 6]\nclass = 1", fillcolor="#bddef6"] ;
472 -> 474 ;
475 [label="gini = 0.133\nsamples = 14\nvalue = [13, 1]\nclass = 0", fillcolor="#e78b48"] ;
465 -> 475 ;
476 [label="speechiness <= 0.106\ngini = 0.443\nsamples = 1064\nvalue = [352, 712]\nclass = 1", fillcolor="#9bcdf2"] ;
394 -> 476 ;
477 [label="duration_ms <= 253780.0\ngini = 0.417\nsamples = 789\nvalue = [234, 555]\nclass = 1", fillcolor="#8cc6f0"] ;
476 -> 477 ;
478 [label="valence <= 0.932\ngini = 0.452\nsamples = 484\nvalue = [167, 317]\nclass = 1", fillcolor="#a1d1f3"] ;
477 -> 478 ;
479 [label="popularity <= 74.5\ngini = 0.46\nsamples = 465\nvalue = [167, 298]\nclass = 1", fillcolor="#a8d4f4"] ;
478 -> 479 ;
480 [label="acousticness <= 0.764\ngini = 0.495\nsamples = 191\nvalue = [86, 105]\nclass = 1", fillcolor="#dbedfa"] ;
479 -> 480 ;
481 [label="loudness <= -5.431\ngini = 0.489\nsamples = 181\nvalue = [77, 104]\nclass = 1", fillcolor="#cce6f8"] ;
480 -> 481 ;
482 [label="gini = 0.449\nsamples = 103\nvalue = [35, 68]\nclass = 1", fillcolor="#9fcff2"] ;
481 -> 482 ;
483 [label="gini = 0.497\nsamples = 78\nvalue = [42, 36]\nclass = 0", fillcolor="#fbede3"] ;
481 -> 483 ;
484 [label="gini = 0.18\nsamples = 10\nvalue = [9, 1]\nclass = 0", fillcolor="#e88f4f"] ;
480 -> 484 ;
485 [label="danceability <= 0.6\ngini = 0.416\nsamples = 274\nvalue = [81, 193]\nclass = 1", fillcolor="#8cc6f0"] ;
479 -> 485 ;
486 [label="popularity <= 82.5\ngini = 0.301\nsamples = 92\nvalue = [17, 75]\nclass = 1", fillcolor="#66b3eb"] ;
485 -> 486 ;
487 [label="gini = 0.226\nsamples = 77\nvalue = [10, 67]\nclass = 1", fillcolor="#57ace9"] ;
486 -> 487 ;
488 [label="gini = 0.498\nsamples = 15\nvalue = [7, 8]\nclass = 1", fillcolor="#e6f3fc"] ;
486 -> 488 ;
489 [label="duration_ms <= 215872.5\ngini = 0.456\nsamples = 182\nvalue = [64, 118]\nclass = 1", fillcolor="#a4d2f3"] ;
485 -> 489 ;
490 [label="gini = 0.117\nsamples = 16\nvalue = [1, 15]\nclass = 1", fillcolor="#46a4e7"] ;
489 -> 490 ;
491 [label="gini = 0.471\nsamples = 166\nvalue = [63, 103]\nclass = 1", fillcolor="#b2d9f5"] ;
489 -> 491 ;
492 [label="gini = 0.0\nsamples = 19\nvalue = [0, 19]\nclass = 1", fillcolor="#399de5"] ;
478 -> 492 ;
493 [label="popularity <= 76.5\ngini = 0.343\nsamples = 305\nvalue = [67, 238]\nclass = 1", fillcolor="#71b9ec"] ;
477 -> 493 ;
494 [label="speechiness <= 0.031\ngini = 0.407\nsamples = 197\nvalue = [56, 141]\nclass = 1", fillcolor="#88c4ef"] ;
493 -> 494 ;
495 [label="loudness <= -7.67\ngini = 0.245\nsamples = 49\nvalue = [7, 42]\nclass = 1", fillcolor="#5aade9"] ;
494 -> 495 ;
496 [label="valence <= 0.27\ngini = 0.403\nsamples = 25\nvalue = [7, 18]\nclass = 1", fillcolor="#86c3ef"] ;
495 -> 496 ;
497 [label="gini = 0.0\nsamples = 10\nvalue = [0, 10]\nclass = 1", fillcolor="#399de5"] ;
496 -> 497 ;
498 [label="gini = 0.498\nsamples = 15\nvalue = [7, 8]\nclass = 1", fillcolor="#e6f3fc"] ;
496 -> 498 ;
499 [label="gini = 0.0\nsamples = 24\nvalue = [0, 24]\nclass = 1", fillcolor="#399de5"] ;
495 -> 499 ;
500 [label="valence <= 0.185\ngini = 0.443\nsamples = 148\nvalue = [49, 99]\nclass = 1", fillcolor="#9bcef2"] ;
494 -> 500 ;
501 [label="gini = 0.43\nsamples = 16\nvalue = [11, 5]\nclass = 0", fillcolor="#f1ba93"] ;
500 -> 501 ;
502 [label="loudness <= -3.693\ngini = 0.41\nsamples = 132\nvalue = [38, 94]\nclass = 1", fillcolor="#89c5f0"] ;
500 -> 502 ;
503 [label="gini = 0.373\nsamples = 117\nvalue = [29, 88]\nclass = 1", fillcolor="#7abdee"] ;
502 -> 503 ;
504 [label="gini = 0.48\nsamples = 15\nvalue = [9, 6]\nclass = 0", fillcolor="#f6d5bd"] ;
502 -> 504 ;
505 [label="speechiness <= 0.065\ngini = 0.183\nsamples = 108\nvalue = [11, 97]\nclass = 1", fillcolor="#4fa8e8"] ;
493 -> 505 ;
506 [label="valence <= 0.157\ngini = 0.128\nsamples = 87\nvalue = [6, 81]\nclass = 1", fillcolor="#48a4e7"] ;
505 -> 506 ;
507 [label="gini = 0.42\nsamples = 10\nvalue = [3, 7]\nclass = 1", fillcolor="#8ec7f0"] ;
506 -> 507 ;
508 [label="duration_ms <= 304018.5\ngini = 0.075\nsamples = 77\nvalue = [3, 74]\nclass = 1", fillcolor="#41a1e6"] ;
506 -> 508 ;
509 [label="gini = 0.029\nsamples = 67\nvalue = [1, 66]\nclass = 1", fillcolor="#3c9ee5"] ;
508 -> 509 ;
510 [label="gini = 0.32\nsamples = 10\nvalue = [2, 8]\nclass = 1", fillcolor="#6ab6ec"] ;
508 -> 510 ;
511 [label="danceability <= 0.713\ngini = 0.363\nsamples = 21\nvalue = [5, 16]\nclass = 1", fillcolor="#77bced"] ;
505 -> 511 ;
512 [label="gini = 0.0\nsamples = 10\nvalue = [0, 10]\nclass = 1", fillcolor="#399de5"] ;
511 -> 512 ;
513 [label="gini = 0.496\nsamples = 11\nvalue = [5, 6]\nclass = 1", fillcolor="#deeffb"] ;
511 -> 513 ;
514 [label="liveness <= 0.142\ngini = 0.49\nsamples = 275\nvalue = [118, 157]\nclass = 1", fillcolor="#cee7f9"] ;
476 -> 514 ;
515 [label="acousticness <= 0.423\ngini = 0.5\nsamples = 154\nvalue = [78, 76]\nclass = 0", fillcolor="#fefcfa"] ;
514 -> 515 ;
516 [label="loudness <= -7.274\ngini = 0.498\nsamples = 128\nvalue = [60, 68]\nclass = 1", fillcolor="#e8f3fc"] ;
515 -> 516 ;
517 [label="instrumentalness <= 0.0\ngini = 0.444\nsamples = 39\nvalue = [13, 26]\nclass = 1", fillcolor="#9ccef2"] ;
516 -> 517 ;
518 [label="mode <= 0.5\ngini = 0.49\nsamples = 28\nvalue = [12, 16]\nclass = 1", fillcolor="#cee6f8"] ;
517 -> 518 ;
519 [label="gini = 0.355\nsamples = 13\nvalue = [3, 10]\nclass = 1", fillcolor="#74baed"] ;
518 -> 519 ;
520 [label="gini = 0.48\nsamples = 15\nvalue = [9, 6]\nclass = 0", fillcolor="#f6d5bd"] ;
518 -> 520 ;
521 [label="gini = 0.165\nsamples = 11\nvalue = [1, 10]\nclass = 1", fillcolor="#4da7e8"] ;
517 -> 521 ;
522 [label="duration_ms <= 223664.5\ngini = 0.498\nsamples = 89\nvalue = [47, 42]\nclass = 0", fillcolor="#fcf2ea"] ;
516 -> 522 ;
523 [label="liveness <= 0.094\ngini = 0.473\nsamples = 26\nvalue = [10, 16]\nclass = 1", fillcolor="#b5daf5"] ;
522 -> 523 ;
524 [label="gini = 0.298\nsamples = 11\nvalue = [2, 9]\nclass = 1", fillcolor="#65b3eb"] ;
523 -> 524 ;
525 [label="gini = 0.498\nsamples = 15\nvalue = [8, 7]\nclass = 0", fillcolor="#fcefe6"] ;
523 -> 525 ;
526 [label="duration_ms <= 228793.0\ngini = 0.485\nsamples = 63\nvalue = [37, 26]\nclass = 0", fillcolor="#f7dac4"] ;
522 -> 526 ;
527 [label="gini = 0.153\nsamples = 12\nvalue = [11, 1]\nclass = 0", fillcolor="#e78c4b"] ;
526 -> 527 ;
528 [label="gini = 0.5\nsamples = 51\nvalue = [26, 25]\nclass = 0", fillcolor="#fefaf7"] ;
526 -> 528 ;
529 [label="acousticness <= 0.558\ngini = 0.426\nsamples = 26\nvalue = [18, 8]\nclass = 0", fillcolor="#f1b991"] ;
515 -> 529 ;
530 [label="gini = 0.18\nsamples = 10\nvalue = [9, 1]\nclass = 0", fillcolor="#e88f4f"] ;
529 -> 530 ;
531 [label="gini = 0.492\nsamples = 16\nvalue = [9, 7]\nclass = 0", fillcolor="#f9e3d3"] ;
529 -> 531 ;
532 [label="tempo <= 173.965\ngini = 0.443\nsamples = 121\nvalue = [40, 81]\nclass = 1", fillcolor="#9bcdf2"] ;
514 -> 532 ;
533 [label="loudness <= -8.927\ngini = 0.418\nsamples = 111\nvalue = [33, 78]\nclass = 1", fillcolor="#8dc6f0"] ;
532 -> 533 ;
534 [label="gini = 0.48\nsamples = 10\nvalue = [6, 4]\nclass = 0", fillcolor="#f6d5bd"] ;
533 -> 534 ;
535 [label="danceability <= 0.875\ngini = 0.392\nsamples = 101\nvalue = [27, 74]\nclass = 1", fillcolor="#81c1ee"] ;
533 -> 535 ;
536 [label="tempo <= 91.816\ngini = 0.417\nsamples = 91\nvalue = [27, 64]\nclass = 1", fillcolor="#8dc6f0"] ;
535 -> 536 ;
537 [label="gini = 0.198\nsamples = 18\nvalue = [2, 16]\nclass = 1", fillcolor="#52a9e8"] ;
536 -> 537 ;
538 [label="gini = 0.45\nsamples = 73\nvalue = [25, 48]\nclass = 1", fillcolor="#a0d0f3"] ;
536 -> 538 ;
539 [label="gini = 0.0\nsamples = 10\nvalue = [0, 10]\nclass = 1", fillcolor="#399de5"] ;
535 -> 539 ;
540 [label="gini = 0.42\nsamples = 10\nvalue = [7, 3]\nclass = 0", fillcolor="#f0b78e"] ;
532 -> 540 ;
}